digraph Tree {
node [shape=box, style="filled, rounded", color="black", fontname=helvetica] ;
edge [fontname=helvetica] ;
0 [label="Sex <= 0.5\nentropy = 0.957\nsamples = 668\nvalue = [415, 253]\nclass = Não sobreviveu", fillcolor="#f5ceb2"] ;
1 [label="Pclass <= 2.5\nentropy = 0.823\nsamples = 229\nvalue = [59, 170]\nclass = Sobreviveu", fillcolor="#7ebfee"] ;
0 -> 1 [labeldistance=2.5, labelangle=45, headlabel="True"] ;
2 [label="Age <= 2.5\nentropy = 0.211\nsamples = 120\nvalue = [4, 116]\nclass = Sobreviveu", fillcolor="#40a0e6"] ;
1 -> 2 ;
3 [label="Pclass <= 1.5\nentropy = 1.0\nsamples = 2\nvalue = [1, 1]\nclass = Não sobreviveu", fillcolor="#ffffff"] ;
2 -> 3 ;
4 [label="entropy = 0.0\nsamples = 1\nvalue = [1, 0]\nclass = Não sobreviveu", fillcolor="#e58139"] ;
3 -> 4 ;
5 [label="entropy = 0.0\nsamples = 1\nvalue = [0, 1]\nclass = Sobreviveu", fillcolor="#399de5"] ;
3 -> 5 ;
6 [label="Age <= 24.5\nentropy = 0.171\nsamples = 118\nvalue = [3, 115]\nclass = Sobreviveu", fillcolor="#3ea0e6"] ;
2 -> 6 ;
7 [label="entropy = 0.0\nsamples = 38\nvalue = [0, 38]\nclass = Sobreviveu", fillcolor="#399de5"] ;
6 -> 7 ;
8 [label="Age <= 27.5\nentropy = 0.231\nsamples = 80\nvalue = [3, 77]\nclass = Sobreviveu", fillcolor="#41a1e6"] ;
6 -> 8 ;
9 [label="Age <= 26.0\nentropy = 1.0\nsamples = 4\nvalue = [2, 2]\nclass = Não sobreviveu", fillcolor="#ffffff"] ;
8 -> 9 ;
10 [label="entropy = 0.0\nsamples = 1\nvalue = [1, 0]\nclass = Não sobreviveu", fillcolor="#e58139"] ;
9 -> 10 ;
11 [label="entropy = 0.918\nsamples = 3\nvalue = [1, 2]\nclass = Sobreviveu", fillcolor="#9ccef2"] ;
9 -> 11 ;
12 [label="Age <= 49.5\nentropy = 0.101\nsamples = 76\nvalue = [1, 75]\nclass = Sobreviveu", fillcolor="#3c9ee5"] ;
8 -> 12 ;
13 [label="entropy = 0.0\nsamples = 61\nvalue = [0, 61]\nclass = Sobreviveu", fillcolor="#399de5"] ;
12 -> 13 ;
14 [label="Age <= 50.5\nentropy = 0.353\nsamples = 15\nvalue = [1, 14]\nclass = Sobreviveu", fillcolor="#47a4e7"] ;
12 -> 14 ;
15 [label="Pclass <= 1.5\nentropy = 0.918\nsamples = 3\nvalue = [1, 2]\nclass = Sobreviveu", fillcolor="#9ccef2"] ;
14 -> 15 ;
16 [label="entropy = 0.0\nsamples = 1\nvalue = [1, 0]\nclass = Não sobreviveu", fillcolor="#e58139"] ;
15 -> 16 ;
17 [label="entropy = 0.0\nsamples = 2\nvalue = [0, 2]\nclass = Sobreviveu", fillcolor="#399de5"] ;
15 -> 17 ;
18 [label="entropy = 0.0\nsamples = 12\nvalue = [0, 12]\nclass = Sobreviveu", fillcolor="#399de5"] ;
14 -> 18 ;
19 [label="Age <= 36.5\nentropy = 1.0\nsamples = 109\nvalue = [55, 54]\nclass = Não sobreviveu", fillcolor="#fffdfb"] ;
1 -> 19 ;
20 [label="Age <= 1.5\nentropy = 0.997\nsamples = 101\nvalue = [47, 54]\nclass = Sobreviveu", fillcolor="#e5f2fc"] ;
19 -> 20 ;
21 [label="entropy = 0.0\nsamples = 4\nvalue = [0, 4]\nclass = Sobreviveu", fillcolor="#399de5"] ;
20 -> 21 ;
22 [label="Age <= 32.0\nentropy = 0.999\nsamples = 97\nvalue = [47, 50]\nclass = Sobreviveu", fillcolor="#f3f9fd"] ;
20 -> 22 ;
23 [label="Age <= 21.5\nentropy = 1.0\nsamples = 94\nvalue = [47, 47]\nclass = Não sobreviveu", fillcolor="#ffffff"] ;
22 -> 23 ;
24 [label="Age <= 19.0\nentropy = 0.96\nsamples = 34\nvalue = [21, 13]\nclass = Não sobreviveu", fillcolor="#f5cfb4"] ;
23 -> 24 ;
25 [label="Age <= 3.5\nentropy = 0.985\nsamples = 28\nvalue = [16, 12]\nclass = Não sobreviveu", fillcolor="#f8e0ce"] ;
24 -> 25 ;
26 [label="Age <= 2.5\nentropy = 0.722\nsamples = 5\nvalue = [4, 1]\nclass = Não sobreviveu", fillcolor="#eca06a"] ;
25 -> 26 ;
27 [label="entropy = 0.811\nsamples = 4\nvalue = [3, 1]\nclass = Não sobreviveu", fillcolor="#eeab7b"] ;
26 -> 27 ;
28 [label="entropy = 0.0\nsamples = 1\nvalue = [1, 0]\nclass = Não sobreviveu", fillcolor="#e58139"] ;
26 -> 28 ;
29 [label="Age <= 6.5\nentropy = 0.999\nsamples = 23\nvalue = [12, 11]\nclass = Não sobreviveu", fillcolor="#fdf5ef"] ;
25 -> 29 ;
30 [label="entropy = 0.0\nsamples = 3\nvalue = [0, 3]\nclass = Sobreviveu", fillcolor="#399de5"] ;
29 -> 30 ;
31 [label="Age <= 11.5\nentropy = 0.971\nsamples = 20\nvalue = [12, 8]\nclass = Não sobreviveu", fillcolor="#f6d5bd"] ;
29 -> 31 ;
32 [label="entropy = 0.0\nsamples = 4\nvalue = [4, 0]\nclass = Não sobreviveu", fillcolor="#e58139"] ;
31 -> 32 ;
33 [label="Age <= 13.5\nentropy = 1.0\nsamples = 16\nvalue = [8, 8]\nclass = Não sobreviveu", fillcolor="#ffffff"] ;
31 -> 33 ;
34 [label="entropy = 0.0\nsamples = 1\nvalue = [0, 1]\nclass = Sobreviveu", fillcolor="#399de5"] ;
33 -> 34 ;
35 [label="Age <= 14.75\nentropy = 0.997\nsamples = 15\nvalue = [8, 7]\nclass = Não sobreviveu", fillcolor="#fcefe6"] ;
33 -> 35 ;
36 [label="entropy = 0.0\nsamples = 2\nvalue = [2, 0]\nclass = Não sobreviveu", fillcolor="#e58139"] ;
35 -> 36 ;
37 [label="Age <= 15.5\nentropy = 0.996\nsamples = 13\nvalue = [6, 7]\nclass = Sobreviveu", fillcolor="#e3f1fb"] ;
35 -> 37 ;
38 [label="entropy = 0.0\nsamples = 2\nvalue = [0, 2]\nclass = Sobreviveu", fillcolor="#399de5"] ;
37 -> 38 ;
39 [label="Age <= 17.5\nentropy = 0.994\nsamples = 11\nvalue = [6, 5]\nclass = Não sobreviveu", fillcolor="#fbeade"] ;
37 -> 39 ;
40 [label="Age <= 16.5\nentropy = 1.0\nsamples = 4\nvalue = [2, 2]\nclass = Não sobreviveu", fillcolor="#ffffff"] ;
39 -> 40 ;
41 [label="entropy = 1.0\nsamples = 2\nvalue = [1, 1]\nclass = Não sobreviveu", fillcolor="#ffffff"] ;
40 -> 41 ;
42 [label="entropy = 1.0\nsamples = 2\nvalue = [1, 1]\nclass = Não sobreviveu", fillcolor="#ffffff"] ;
40 -> 42 ;
43 [label="entropy = 0.985\nsamples = 7\nvalue = [4, 3]\nclass = Não sobreviveu", fillcolor="#f8e0ce"] ;
39 -> 43 ;
44 [label="Age <= 20.5\nentropy = 0.65\nsamples = 6\nvalue = [5, 1]\nclass = Não sobreviveu", fillcolor="#ea9a61"] ;
24 -> 44 ;
45 [label="entropy = 0.0\nsamples = 2\nvalue = [2, 0]\nclass = Não sobreviveu", fillcolor="#e58139"] ;
44 -> 45 ;
46 [label="entropy = 0.811\nsamples = 4\nvalue = [3, 1]\nclass = Não sobreviveu", fillcolor="#eeab7b"] ;
44 -> 46 ;
47 [label="Age <= 27.5\nentropy = 0.987\nsamples = 60\nvalue = [26, 34]\nclass = Sobreviveu", fillcolor="#d0e8f9"] ;
23 -> 47 ;
48 [label="Age <= 26.5\nentropy = 0.949\nsamples = 19\nvalue = [7, 12]\nclass = Sobreviveu", fillcolor="#acd6f4"] ;
47 -> 48 ;
49 [label="Age <= 24.5\nentropy = 0.989\nsamples = 16\nvalue = [7, 9]\nclass = Sobreviveu", fillcolor="#d3e9f9"] ;
48 -> 49 ;
50 [label="Age <= 23.5\nentropy = 0.946\nsamples = 11\nvalue = [4, 7]\nclass = Sobreviveu", fillcolor="#aad5f4"] ;
49 -> 50 ;
51 [label="Age <= 22.5\nentropy = 0.985\nsamples = 7\nvalue = [3, 4]\nclass = Sobreviveu", fillcolor="#cee6f8"] ;
50 -> 51 ;
52 [label="entropy = 0.971\nsamples = 5\nvalue = [2, 3]\nclass = Sobreviveu", fillcolor="#bddef6"] ;
51 -> 52 ;
53 [label="entropy = 1.0\nsamples = 2\nvalue = [1, 1]\nclass = Não sobreviveu", fillcolor="#ffffff"] ;
51 -> 53 ;
54 [label="entropy = 0.811\nsamples = 4\nvalue = [1, 3]\nclass = Sobreviveu", fillcolor="#7bbeee"] ;
50 -> 54 ;
55 [label="Age <= 25.5\nentropy = 0.971\nsamples = 5\nvalue = [3, 2]\nclass = Não sobreviveu", fillcolor="#f6d5bd"] ;
49 -> 55 ;
56 [label="entropy = 0.0\nsamples = 2\nvalue = [2, 0]\nclass = Não sobreviveu", fillcolor="#e58139"] ;
55 -> 56 ;
57 [label="entropy = 0.918\nsamples = 3\nvalue = [1, 2]\nclass = Sobreviveu", fillcolor="#9ccef2"] ;
55 -> 57 ;
58 [label="entropy = 0.0\nsamples = 3\nvalue = [0, 3]\nclass = Sobreviveu", fillcolor="#399de5"] ;
48 -> 58 ;
59 [label="Age <= 30.5\nentropy = 0.996\nsamples = 41\nvalue = [19, 22]\nclass = Sobreviveu", fillcolor="#e4f2fb"] ;
47 -> 59 ;
60 [label="Age <= 28.5\nentropy = 0.998\nsamples = 38\nvalue = [18, 20]\nclass = Sobreviveu", fillcolor="#ebf5fc"] ;
59 -> 60 ;
61 [label="entropy = 0.994\nsamples = 33\nvalue = [15, 18]\nclass = Sobreviveu", fillcolor="#deeffb"] ;
60 -> 61 ;
62 [label="Age <= 29.5\nentropy = 0.971\nsamples = 5\nvalue = [3, 2]\nclass = Não sobreviveu", fillcolor="#f6d5bd"] ;
60 -> 62 ;
63 [label="entropy = 0.918\nsamples = 3\nvalue = [2, 1]\nclass = Não sobreviveu", fillcolor="#f2c09c"] ;
62 -> 63 ;
64 [label="entropy = 1.0\nsamples = 2\nvalue = [1, 1]\nclass = Não sobreviveu", fillcolor="#ffffff"] ;
62 -> 64 ;
65 [label="entropy = 0.918\nsamples = 3\nvalue = [1, 2]\nclass = Sobreviveu", fillcolor="#9ccef2"] ;
59 -> 65 ;
66 [label="entropy = 0.0\nsamples = 3\nvalue = [0, 3]\nclass = Sobreviveu", fillcolor="#399de5"] ;
22 -> 66 ;
67 [label="entropy = 0.0\nsamples = 8\nvalue = [8, 0]\nclass = Não sobreviveu", fillcolor="#e58139"] ;
19 -> 67 ;
68 [label="Age <= 6.5\nentropy = 0.7\nsamples = 439\nvalue = [356, 83]\nclass = Não sobreviveu", fillcolor="#eb9e67"] ;
0 -> 68 [labeldistance=2.5, labelangle=-45, headlabel="False"] ;
69 [label="Pclass <= 2.5\nentropy = 0.863\nsamples = 21\nvalue = [6, 15]\nclass = Sobreviveu", fillcolor="#88c4ef"] ;
68 -> 69 ;
70 [label="entropy = 0.0\nsamples = 9\nvalue = [0, 9]\nclass = Sobreviveu", fillcolor="#399de5"] ;
69 -> 70 ;
71 [label="Age <= 0.71\nentropy = 1.0\nsamples = 12\nvalue = [6, 6]\nclass = Não sobreviveu", fillcolor="#ffffff"] ;
69 -> 71 ;
72 [label="entropy = 0.0\nsamples = 1\nvalue = [0, 1]\nclass = Sobreviveu", fillcolor="#399de5"] ;
71 -> 72 ;
73 [label="Age <= 2.5\nentropy = 0.994\nsamples = 11\nvalue = [6, 5]\nclass = Não sobreviveu", fillcolor="#fbeade"] ;
71 -> 73 ;
74 [label="Age <= 1.5\nentropy = 0.722\nsamples = 5\nvalue = [4, 1]\nclass = Não sobreviveu", fillcolor="#eca06a"] ;
73 -> 74 ;
75 [label="entropy = 0.918\nsamples = 3\nvalue = [2, 1]\nclass = Não sobreviveu", fillcolor="#f2c09c"] ;
74 -> 75 ;
76 [label="entropy = 0.0\nsamples = 2\nvalue = [2, 0]\nclass = Não sobreviveu", fillcolor="#e58139"] ;
74 -> 76 ;
77 [label="Age <= 3.5\nentropy = 0.918\nsamples = 6\nvalue = [2, 4]\nclass = Sobreviveu", fillcolor="#9ccef2"] ;
73 -> 77 ;
78 [label="entropy = 0.0\nsamples = 2\nvalue = [0, 2]\nclass = Sobreviveu", fillcolor="#399de5"] ;
77 -> 78 ;
79 [label="Age <= 5.0\nentropy = 1.0\nsamples = 4\nvalue = [2, 2]\nclass = Não sobreviveu", fillcolor="#ffffff"] ;
77 -> 79 ;
80 [label="entropy = 0.918\nsamples = 3\nvalue = [2, 1]\nclass = Não sobreviveu", fillcolor="#f2c09c"] ;
79 -> 80 ;
81 [label="entropy = 0.0\nsamples = 1\nvalue = [0, 1]\nclass = Sobreviveu", fillcolor="#399de5"] ;
79 -> 81 ;
82 [label="Pclass <= 1.5\nentropy = 0.641\nsamples = 418\nvalue = [350, 68]\nclass = Não sobreviveu", fillcolor="#ea995f"] ;
68 -> 82 ;
83 [label="Age <= 27.5\nentropy = 0.918\nsamples = 84\nvalue = [56, 28]\nclass = Não sobreviveu", fillcolor="#f2c09c"] ;
82 -> 83 ;
84 [label="Age <= 23.5\nentropy = 0.994\nsamples = 11\nvalue = [5, 6]\nclass = Sobreviveu", fillcolor="#deeffb"] ;
83 -> 84 ;
85 [label="Age <= 17.5\nentropy = 0.65\nsamples = 6\nvalue = [5, 1]\nclass = Não sobreviveu", fillcolor="#ea9a61"] ;
84 -> 85 ;
86 [label="entropy = 0.0\nsamples = 1\nvalue = [0, 1]\nclass = Sobreviveu", fillcolor="#399de5"] ;
85 -> 86 ;
87 [label="entropy = 0.0\nsamples = 5\nvalue = [5, 0]\nclass = Não sobreviveu", fillcolor="#e58139"] ;
85 -> 87 ;
88 [label="entropy = 0.0\nsamples = 5\nvalue = [0, 5]\nclass = Sobreviveu", fillcolor="#399de5"] ;
84 -> 88 ;
89 [label="Age <= 75.0\nentropy = 0.883\nsamples = 73\nvalue = [51, 22]\nclass = Não sobreviveu", fillcolor="#f0b78e"] ;
83 -> 89 ;
90 [label="Age <= 60.5\nentropy = 0.871\nsamples = 72\nvalue = [51, 21]\nclass = Não sobreviveu", fillcolor="#f0b58b"] ;
89 -> 90 ;
91 [label="Age <= 30.5\nentropy = 0.902\nsamples = 66\nvalue = [45, 21]\nclass = Não sobreviveu", fillcolor="#f1bc95"] ;
90 -> 91 ;
92 [label="Age <= 28.5\nentropy = 0.684\nsamples = 22\nvalue = [18, 4]\nclass = Não sobreviveu", fillcolor="#eb9d65"] ;
91 -> 92 ;
93 [label="entropy = 0.742\nsamples = 19\nvalue = [15, 4]\nclass = Não sobreviveu", fillcolor="#eca36e"] ;
92 -> 93 ;
94 [label="entropy = 0.0\nsamples = 3\nvalue = [3, 0]\nclass = Não sobreviveu", fillcolor="#e58139"] ;
92 -> 94 ;
95 [label="Age <= 35.5\nentropy = 0.962\nsamples = 44\nvalue = [27, 17]\nclass = Não sobreviveu", fillcolor="#f5d0b6"] ;
91 -> 95 ;
96 [label="Age <= 34.0\nentropy = 0.985\nsamples = 7\nvalue = [3, 4]\nclass = Sobreviveu", fillcolor="#cee6f8"] ;
95 -> 96 ;
97 [label="Age <= 32.5\nentropy = 0.971\nsamples = 5\nvalue = [3, 2]\nclass = Não sobreviveu", fillcolor="#f6d5bd"] ;
96 -> 97 ;
98 [label="Age <= 31.5\nentropy = 1.0\nsamples = 4\nvalue = [2, 2]\nclass = Não sobreviveu", fillcolor="#ffffff"] ;
97 -> 98 ;
99 [label="entropy = 0.918\nsamples = 3\nvalue = [2, 1]\nclass = Não sobreviveu", fillcolor="#f2c09c"] ;
98 -> 99 ;
100 [label="entropy = 0.0\nsamples = 1\nvalue = [0, 1]\nclass = Sobreviveu", fillcolor="#399de5"] ;
98 -> 100 ;
101 [label="entropy = 0.0\nsamples = 1\nvalue = [1, 0]\nclass = Não sobreviveu", fillcolor="#e58139"] ;
97 -> 101 ;
102 [label="entropy = 0.0\nsamples = 2\nvalue = [0, 2]\nclass = Sobreviveu", fillcolor="#399de5"] ;
96 -> 102 ;
103 [label="Age <= 47.5\nentropy = 0.935\nsamples = 37\nvalue = [24, 13]\nclass = Não sobreviveu", fillcolor="#f3c5a4"] ;
95 -> 103 ;
104 [label="Age <= 45.5\nentropy = 0.831\nsamples = 19\nvalue = [14, 5]\nclass = Não sobreviveu", fillcolor="#eeae80"] ;
103 -> 104 ;
105 [label="Age <= 38.5\nentropy = 0.918\nsamples = 15\nvalue = [10, 5]\nclass = Não sobreviveu", fillcolor="#f2c09c"] ;
104 -> 105 ;
106 [label="Age <= 36.5\nentropy = 0.985\nsamples = 7\nvalue = [4, 3]\nclass = Não sobreviveu", fillcolor="#f8e0ce"] ;
105 -> 106 ;
107 [label="entropy = 0.918\nsamples = 3\nvalue = [2, 1]\nclass = Não sobreviveu", fillcolor="#f2c09c"] ;
106 -> 107 ;
108 [label="Age <= 37.5\nentropy = 1.0\nsamples = 4\nvalue = [2, 2]\nclass = Não sobreviveu", fillcolor="#ffffff"] ;
106 -> 108 ;
109 [label="entropy = 1.0\nsamples = 2\nvalue = [1, 1]\nclass = Não sobreviveu", fillcolor="#ffffff"] ;
108 -> 109 ;
110 [label="entropy = 1.0\nsamples = 2\nvalue = [1, 1]\nclass = Não sobreviveu", fillcolor="#ffffff"] ;
108 -> 110 ;
111 [label="Age <= 41.0\nentropy = 0.811\nsamples = 8\nvalue = [6, 2]\nclass = Não sobreviveu", fillcolor="#eeab7b"] ;
105 -> 111 ;
112 [label="entropy = 0.0\nsamples = 2\nvalue = [2, 0]\nclass = Não sobreviveu", fillcolor="#e58139"] ;
111 -> 112 ;
113 [label="Age <= 43.0\nentropy = 0.918\nsamples = 6\nvalue = [4, 2]\nclass = Não sobreviveu", fillcolor="#f2c09c"] ;
111 -> 113 ;
114 [label="entropy = 1.0\nsamples = 2\nvalue = [1, 1]\nclass = Não sobreviveu", fillcolor="#ffffff"] ;
113 -> 114 ;
115 [label="Age <= 44.5\nentropy = 0.811\nsamples = 4\nvalue = [3, 1]\nclass = Não sobreviveu", fillcolor="#eeab7b"] ;
113 -> 115 ;
116 [label="entropy = 0.0\nsamples = 1\nvalue = [1, 0]\nclass = Não sobreviveu", fillcolor="#e58139"] ;
115 -> 116 ;
117 [label="entropy = 0.918\nsamples = 3\nvalue = [2, 1]\nclass = Não sobreviveu", fillcolor="#f2c09c"] ;
115 -> 117 ;
118 [label="entropy = 0.0\nsamples = 4\nvalue = [4, 0]\nclass = Não sobreviveu", fillcolor="#e58139"] ;
104 -> 118 ;
119 [label="Age <= 48.5\nentropy = 0.991\nsamples = 18\nvalue = [10, 8]\nclass = Não sobreviveu", fillcolor="#fae6d7"] ;
103 -> 119 ;
120 [label="entropy = 0.0\nsamples = 2\nvalue = [0, 2]\nclass = Sobreviveu", fillcolor="#399de5"] ;
119 -> 120 ;
121 [label="Age <= 53.0\nentropy = 0.954\nsamples = 16\nvalue = [10, 6]\nclass = Não sobreviveu", fillcolor="#f5cdb0"] ;
119 -> 121 ;
122 [label="Age <= 50.5\nentropy = 1.0\nsamples = 8\nvalue = [4, 4]\nclass = Não sobreviveu", fillcolor="#ffffff"] ;
121 -> 122 ;
123 [label="Age <= 49.5\nentropy = 0.971\nsamples = 5\nvalue = [3, 2]\nclass = Não sobreviveu", fillcolor="#f6d5bd"] ;
122 -> 123 ;
124 [label="entropy = 1.0\nsamples = 2\nvalue = [1, 1]\nclass = Não sobreviveu", fillcolor="#ffffff"] ;
123 -> 124 ;
125 [label="entropy = 0.918\nsamples = 3\nvalue = [2, 1]\nclass = Não sobreviveu", fillcolor="#f2c09c"] ;
123 -> 125 ;
126 [label="Age <= 51.5\nentropy = 0.918\nsamples = 3\nvalue = [1, 2]\nclass = Sobreviveu", fillcolor="#9ccef2"] ;
122 -> 126 ;
127 [label="entropy = 0.0\nsamples = 1\nvalue = [0, 1]\nclass = Sobreviveu", fillcolor="#399de5"] ;
126 -> 127 ;
128 [label="entropy = 1.0\nsamples = 2\nvalue = [1, 1]\nclass = Não sobreviveu", fillcolor="#ffffff"] ;
126 -> 128 ;
129 [label="Age <= 55.5\nentropy = 0.811\nsamples = 8\nvalue = [6, 2]\nclass = Não sobreviveu", fillcolor="#eeab7b"] ;
121 -> 129 ;
130 [label="entropy = 0.0\nsamples = 3\nvalue = [3, 0]\nclass = Não sobreviveu", fillcolor="#e58139"] ;
129 -> 130 ;
131 [label="Age <= 57.0\nentropy = 0.971\nsamples = 5\nvalue = [3, 2]\nclass = Não sobreviveu", fillcolor="#f6d5bd"] ;
129 -> 131 ;
132 [label="entropy = 1.0\nsamples = 2\nvalue = [1, 1]\nclass = Não sobreviveu", fillcolor="#ffffff"] ;
131 -> 132 ;
133 [label="Age <= 59.0\nentropy = 0.918\nsamples = 3\nvalue = [2, 1]\nclass = Não sobreviveu", fillcolor="#f2c09c"] ;
131 -> 133 ;
134 [label="entropy = 0.0\nsamples = 1\nvalue = [1, 0]\nclass = Não sobreviveu", fillcolor="#e58139"] ;
133 -> 134 ;
135 [label="entropy = 1.0\nsamples = 2\nvalue = [1, 1]\nclass = Não sobreviveu", fillcolor="#ffffff"] ;
133 -> 135 ;
136 [label="entropy = 0.0\nsamples = 6\nvalue = [6, 0]\nclass = Não sobreviveu", fillcolor="#e58139"] ;
90 -> 136 ;
137 [label="entropy = 0.0\nsamples = 1\nvalue = [0, 1]\nclass = Sobreviveu", fillcolor="#399de5"] ;
89 -> 137 ;
138 [label="Age <= 32.25\nentropy = 0.529\nsamples = 334\nvalue = [294, 40]\nclass = Não sobreviveu", fillcolor="#e99254"] ;
82 -> 138 ;
139 [label="Age <= 31.5\nentropy = 0.586\nsamples = 249\nvalue = [214, 35]\nclass = Não sobreviveu", fillcolor="#e99659"] ;
138 -> 139 ;
140 [label="Age <= 13.0\nentropy = 0.536\nsamples = 237\nvalue = [208, 29]\nclass = Não sobreviveu", fillcolor="#e99355"] ;
139 -> 140 ;
141 [label="Age <= 11.5\nentropy = 0.881\nsamples = 10\nvalue = [7, 3]\nclass = Não sobreviveu", fillcolor="#f0b78e"] ;
140 -> 141 ;
142 [label="Pclass <= 2.5\nentropy = 0.764\nsamples = 9\nvalue = [7, 2]\nclass = Não sobreviveu", fillcolor="#eca572"] ;
141 -> 142 ;
143 [label="entropy = 0.0\nsamples = 1\nvalue = [0, 1]\nclass = Sobreviveu", fillcolor="#399de5"] ;
142 -> 143 ;
144 [label="Age <= 8.5\nentropy = 0.544\nsamples = 8\nvalue = [7, 1]\nclass = Não sobreviveu", fillcolor="#e99355"] ;
142 -> 144 ;
145 [label="entropy = 0.0\nsamples = 3\nvalue = [3, 0]\nclass = Não sobreviveu", fillcolor="#e58139"] ;
144 -> 145 ;
146 [label="Age <= 10.0\nentropy = 0.722\nsamples = 5\nvalue = [4, 1]\nclass = Não sobreviveu", fillcolor="#eca06a"] ;
144 -> 146 ;
147 [label="entropy = 0.918\nsamples = 3\nvalue = [2, 1]\nclass = Não sobreviveu", fillcolor="#f2c09c"] ;
146 -> 147 ;
148 [label="entropy = 0.0\nsamples = 2\nvalue = [2, 0]\nclass = Não sobreviveu", fillcolor="#e58139"] ;
146 -> 148 ;
149 [label="entropy = 0.0\nsamples = 1\nvalue = [0, 1]\nclass = Sobreviveu", fillcolor="#399de5"] ;
141 -> 149 ;
150 [label="Age <= 18.5\nentropy = 0.513\nsamples = 227\nvalue = [201, 26]\nclass = Não sobreviveu", fillcolor="#e89153"] ;
140 -> 150 ;
151 [label="Age <= 16.5\nentropy = 0.258\nsamples = 23\nvalue = [22, 1]\nclass = Não sobreviveu", fillcolor="#e68742"] ;
150 -> 151 ;
152 [label="Age <= 15.5\nentropy = 0.439\nsamples = 11\nvalue = [10, 1]\nclass = Não sobreviveu", fillcolor="#e88e4d"] ;
151 -> 152 ;
153 [label="entropy = 0.0\nsamples = 3\nvalue = [3, 0]\nclass = Não sobreviveu", fillcolor="#e58139"] ;
152 -> 153 ;
154 [label="Pclass <= 2.5\nentropy = 0.544\nsamples = 8\nvalue = [7, 1]\nclass = Não sobreviveu", fillcolor="#e99355"] ;
152 -> 154 ;
155 [label="entropy = 0.0\nsamples = 2\nvalue = [2, 0]\nclass = Não sobreviveu", fillcolor="#e58139"] ;
154 -> 155 ;
156 [label="entropy = 0.65\nsamples = 6\nvalue = [5, 1]\nclass = Não sobreviveu", fillcolor="#ea9a61"] ;
154 -> 156 ;
157 [label="entropy = 0.0\nsamples = 12\nvalue = [12, 0]\nclass = Não sobreviveu", fillcolor="#e58139"] ;
151 -> 157 ;
158 [label="Age <= 27.5\nentropy = 0.537\nsamples = 204\nvalue = [179, 25]\nclass = Não sobreviveu", fillcolor="#e99355"] ;
150 -> 158 ;
159 [label="Age <= 26.5\nentropy = 0.619\nsamples = 91\nvalue = [77, 14]\nclass = Não sobreviveu", fillcolor="#ea985d"] ;
158 -> 159 ;
160 [label="Pclass <= 2.5\nentropy = 0.552\nsamples = 86\nvalue = [75, 11]\nclass = Não sobreviveu", fillcolor="#e99356"] ;
159 -> 160 ;
161 [label="Age <= 20.0\nentropy = 0.323\nsamples = 17\nvalue = [16, 1]\nclass = Não sobreviveu", fillcolor="#e78945"] ;
160 -> 161 ;
162 [label="entropy = 0.811\nsamples = 4\nvalue = [3, 1]\nclass = Não sobreviveu", fillcolor="#eeab7b"] ;
161 -> 162 ;
163 [label="entropy = 0.0\nsamples = 13\nvalue = [13, 0]\nclass = Não sobreviveu", fillcolor="#e58139"] ;
161 -> 163 ;
164 [label="Age <= 24.75\nentropy = 0.597\nsamples = 69\nvalue = [59, 10]\nclass = Não sobreviveu", fillcolor="#e9965b"] ;
160 -> 164 ;
165 [label="Age <= 20.5\nentropy = 0.529\nsamples = 50\nvalue = [44, 6]\nclass = Não sobreviveu", fillcolor="#e99254"] ;
164 -> 165 ;
166 [label="Age <= 19.5\nentropy = 0.629\nsamples = 19\nvalue = [16, 3]\nclass = Não sobreviveu", fillcolor="#ea995e"] ;
165 -> 166 ;
167 [label="entropy = 0.469\nsamples = 10\nvalue = [9, 1]\nclass = Não sobreviveu", fillcolor="#e88f4f"] ;
166 -> 167 ;
168 [label="entropy = 0.764\nsamples = 9\nvalue = [7, 2]\nclass = Não sobreviveu", fillcolor="#eca572"] ;
166 -> 168 ;
169 [label="Age <= 24.25\nentropy = 0.459\nsamples = 31\nvalue = [28, 3]\nclass = Não sobreviveu", fillcolor="#e88e4e"] ;
165 -> 169 ;
170 [label="Age <= 23.5\nentropy = 0.469\nsamples = 30\nvalue = [27, 3]\nclass = Não sobreviveu", fillcolor="#e88f4f"] ;
169 -> 170 ;
171 [label="Age <= 22.5\nentropy = 0.414\nsamples = 24\nvalue = [22, 2]\nclass = Não sobreviveu", fillcolor="#e78c4b"] ;
170 -> 171 ;
172 [label="Age <= 21.5\nentropy = 0.426\nsamples = 23\nvalue = [21, 2]\nclass = Não sobreviveu", fillcolor="#e78d4c"] ;
171 -> 172 ;
173 [label="entropy = 0.469\nsamples = 10\nvalue = [9, 1]\nclass = Não sobreviveu", fillcolor="#e88f4f"] ;
172 -> 173 ;
174 [label="entropy = 0.391\nsamples = 13\nvalue = [12, 1]\nclass = Não sobreviveu", fillcolor="#e78c49"] ;
172 -> 174 ;
175 [label="entropy = 0.0\nsamples = 1\nvalue = [1, 0]\nclass = Não sobreviveu", fillcolor="#e58139"] ;
171 -> 175 ;
176 [label="entropy = 0.65\nsamples = 6\nvalue = [5, 1]\nclass = Não sobreviveu", fillcolor="#ea9a61"] ;
170 -> 176 ;
177 [label="entropy = 0.0\nsamples = 1\nvalue = [1, 0]\nclass = Não sobreviveu", fillcolor="#e58139"] ;
169 -> 177 ;
178 [label="Age <= 25.5\nentropy = 0.742\nsamples = 19\nvalue = [15, 4]\nclass = Não sobreviveu", fillcolor="#eca36e"] ;
164 -> 178 ;
179 [label="entropy = 0.764\nsamples = 9\nvalue = [7, 2]\nclass = Não sobreviveu", fillcolor="#eca572"] ;
178 -> 179 ;
180 [label="entropy = 0.722\nsamples = 10\nvalue = [8, 2]\nclass = Não sobreviveu", fillcolor="#eca06a"] ;
178 -> 180 ;
181 [label="Pclass <= 2.5\nentropy = 0.971\nsamples = 5\nvalue = [2, 3]\nclass = Sobreviveu", fillcolor="#bddef6"] ;
159 -> 181 ;
182 [label="entropy = 0.0\nsamples = 2\nvalue = [2, 0]\nclass = Não sobreviveu", fillcolor="#e58139"] ;
181 -> 182 ;
183 [label="entropy = 0.0\nsamples = 3\nvalue = [0, 3]\nclass = Sobreviveu", fillcolor="#399de5"] ;
181 -> 183 ;
184 [label="Age <= 28.75\nentropy = 0.461\nsamples = 113\nvalue = [102, 11]\nclass = Não sobreviveu", fillcolor="#e88f4e"] ;
158 -> 184 ;
185 [label="Pclass <= 2.5\nentropy = 0.42\nsamples = 94\nvalue = [86, 8]\nclass = Não sobreviveu", fillcolor="#e78d4b"] ;
184 -> 185 ;
186 [label="entropy = 0.684\nsamples = 11\nvalue = [9, 2]\nclass = Não sobreviveu", fillcolor="#eb9d65"] ;
185 -> 186 ;
187 [label="Age <= 28.25\nentropy = 0.374\nsamples = 83\nvalue = [77, 6]\nclass = Não sobreviveu", fillcolor="#e78b48"] ;
185 -> 187 ;
188 [label="entropy = 0.381\nsamples = 81\nvalue = [75, 6]\nclass = Não sobreviveu", fillcolor="#e78b49"] ;
187 -> 188 ;
189 [label="entropy = 0.0\nsamples = 2\nvalue = [2, 0]\nclass = Não sobreviveu", fillcolor="#e58139"] ;
187 -> 189 ;
190 [label="Pclass <= 2.5\nentropy = 0.629\nsamples = 19\nvalue = [16, 3]\nclass = Não sobreviveu", fillcolor="#ea995e"] ;
184 -> 190 ;
191 [label="entropy = 0.0\nsamples = 8\nvalue = [8, 0]\nclass = Não sobreviveu", fillcolor="#e58139"] ;
190 -> 191 ;
192 [label="Age <= 29.5\nentropy = 0.845\nsamples = 11\nvalue = [8, 3]\nclass = Não sobreviveu", fillcolor="#efb083"] ;
190 -> 192 ;
193 [label="entropy = 0.918\nsamples = 3\nvalue = [1, 2]\nclass = Sobreviveu", fillcolor="#9ccef2"] ;
192 -> 193 ;
194 [label="Age <= 30.5\nentropy = 0.544\nsamples = 8\nvalue = [7, 1]\nclass = Não sobreviveu", fillcolor="#e99355"] ;
192 -> 194 ;
195 [label="entropy = 0.0\nsamples = 5\nvalue = [5, 0]\nclass = Não sobreviveu", fillcolor="#e58139"] ;
194 -> 195 ;
196 [label="entropy = 0.918\nsamples = 3\nvalue = [2, 1]\nclass = Não sobreviveu", fillcolor="#f2c09c"] ;
194 -> 196 ;
197 [label="Pclass <= 2.5\nentropy = 1.0\nsamples = 12\nvalue = [6, 6]\nclass = Não sobreviveu", fillcolor="#ffffff"] ;
139 -> 197 ;
198 [label="entropy = 1.0\nsamples = 2\nvalue = [1, 1]\nclass = Não sobreviveu", fillcolor="#ffffff"] ;
197 -> 198 ;
199 [label="entropy = 1.0\nsamples = 10\nvalue = [5, 5]\nclass = Não sobreviveu", fillcolor="#ffffff"] ;
197 -> 199 ;
200 [label="Age <= 61.0\nentropy = 0.323\nsamples = 85\nvalue = [80, 5]\nclass = Não sobreviveu", fillcolor="#e78945"] ;
138 -> 200 ;
201 [label="Age <= 44.5\nentropy = 0.284\nsamples = 81\nvalue = [77, 4]\nclass = Não sobreviveu", fillcolor="#e68843"] ;
200 -> 201 ;
202 [label="Age <= 41.5\nentropy = 0.367\nsamples = 57\nvalue = [53, 4]\nclass = Não sobreviveu", fillcolor="#e78b48"] ;
201 -> 202 ;
203 [label="Age <= 33.5\nentropy = 0.262\nsamples = 45\nvalue = [43, 2]\nclass = Não sobreviveu", fillcolor="#e68742"] ;
202 -> 203 ;
204 [label="entropy = 0.0\nsamples = 8\nvalue = [8, 0]\nclass = Não sobreviveu", fillcolor="#e58139"] ;
203 -> 204 ;
205 [label="Age <= 39.5\nentropy = 0.303\nsamples = 37\nvalue = [35, 2]\nclass = Não sobreviveu", fillcolor="#e68844"] ;
203 -> 205 ;
206 [label="Age <= 38.5\nentropy = 0.353\nsamples = 30\nvalue = [28, 2]\nclass = Não sobreviveu", fillcolor="#e78a47"] ;
205 -> 206 ;
207 [label="Age <= 34.25\nentropy = 0.25\nsamples = 24\nvalue = [23, 1]\nclass = Não sobreviveu", fillcolor="#e68642"] ;
206 -> 207 ;
208 [label="Pclass <= 2.5\nentropy = 0.503\nsamples = 9\nvalue = [8, 1]\nclass = Não sobreviveu", fillcolor="#e89152"] ;
207 -> 208 ;
209 [label="entropy = 0.722\nsamples = 5\nvalue = [4, 1]\nclass = Não sobreviveu", fillcolor="#eca06a"] ;
208 -> 209 ;
210 [label="entropy = 0.0\nsamples = 4\nvalue = [4, 0]\nclass = Não sobreviveu", fillcolor="#e58139"] ;
208 -> 210 ;
211 [label="entropy = 0.0\nsamples = 15\nvalue = [15, 0]\nclass = Não sobreviveu", fillcolor="#e58139"] ;
207 -> 211 ;
212 [label="Pclass <= 2.5\nentropy = 0.65\nsamples = 6\nvalue = [5, 1]\nclass = Não sobreviveu", fillcolor="#ea9a61"] ;
206 -> 212 ;
213 [label="entropy = 0.0\nsamples = 2\nvalue = [2, 0]\nclass = Não sobreviveu", fillcolor="#e58139"] ;
212 -> 213 ;
214 [label="entropy = 0.811\nsamples = 4\nvalue = [3, 1]\nclass = Não sobreviveu", fillcolor="#eeab7b"] ;
212 -> 214 ;
215 [label="entropy = 0.0\nsamples = 7\nvalue = [7, 0]\nclass = Não sobreviveu", fillcolor="#e58139"] ;
205 -> 215 ;
216 [label="Age <= 43.5\nentropy = 0.65\nsamples = 12\nvalue = [10, 2]\nclass = Não sobreviveu", fillcolor="#ea9a61"] ;
202 -> 216 ;
217 [label="Pclass <= 2.5\nentropy = 0.544\nsamples = 8\nvalue = [7, 1]\nclass = Não sobreviveu", fillcolor="#e99355"] ;
216 -> 217 ;
218 [label="Age <= 42.5\nentropy = 0.811\nsamples = 4\nvalue = [3, 1]\nclass = Não sobreviveu", fillcolor="#eeab7b"] ;
217 -> 218 ;
219 [label="entropy = 0.918\nsamples = 3\nvalue = [2, 1]\nclass = Não sobreviveu", fillcolor="#f2c09c"] ;
218 -> 219 ;
220 [label="entropy = 0.0\nsamples = 1\nvalue = [1, 0]\nclass = Não sobreviveu", fillcolor="#e58139"] ;
218 -> 220 ;
221 [label="entropy = 0.0\nsamples = 4\nvalue = [4, 0]\nclass = Não sobreviveu", fillcolor="#e58139"] ;
217 -> 221 ;
222 [label="Pclass <= 2.5\nentropy = 0.811\nsamples = 4\nvalue = [3, 1]\nclass = Não sobreviveu", fillcolor="#eeab7b"] ;
216 -> 222 ;
223 [label="entropy = 0.0\nsamples = 1\nvalue = [1, 0]\nclass = Não sobreviveu", fillcolor="#e58139"] ;
222 -> 223 ;
224 [label="entropy = 0.918\nsamples = 3\nvalue = [2, 1]\nclass = Não sobreviveu", fillcolor="#f2c09c"] ;
222 -> 224 ;
225 [label="entropy = 0.0\nsamples = 24\nvalue = [24, 0]\nclass = Não sobreviveu", fillcolor="#e58139"] ;
201 -> 225 ;
226 [label="Age <= 66.0\nentropy = 0.811\nsamples = 4\nvalue = [3, 1]\nclass = Não sobreviveu", fillcolor="#eeab7b"] ;
200 -> 226 ;
227 [label="entropy = 0.0\nsamples = 1\nvalue = [0, 1]\nclass = Sobreviveu", fillcolor="#399de5"] ;
226 -> 227 ;
228 [label="entropy = 0.0\nsamples = 3\nvalue = [3, 0]\nclass = Não sobreviveu", fillcolor="#e58139"] ;
226 -> 228 ;
}